digraph Tree {
node [shape=box, fontname="helvetica"] ;
edge [fontname="helvetica"] ;
0 [label="RM <= 6.941\nsquared_error = 86.873\nsamples = 404\nvalue = 22.797"] ;
1 [label="LSTAT <= 14.4\nsquared_error = 40.321\nsamples = 337\nvalue = 19.947"] ;
0 -> 1 [labeldistance=2.5, labelangle=45, headlabel="True"] ;
2 [label="DIS <= 1.385\nsquared_error = 25.693\nsamples = 203\nvalue = 23.325"] ;
1 -> 2 ;
3 [label="CRIM <= 10.109\nsquared_error = 91.577\nsamples = 4\nvalue = 44.475"] ;
2 -> 3 ;
4 [label="squared_error = 0.0\nsamples = 3\nvalue = 50.0"] ;
3 -> 4 ;
5 [label="squared_error = -0.0\nsamples = 1\nvalue = 27.9"] ;
3 -> 5 ;
6 [label="RM <= 6.543\nsquared_error = 15.197\nsamples = 199\nvalue = 22.899"] ;
2 -> 6 ;
7 [label="RM <= 6.099\nsquared_error = 8.635\nsamples = 156\nvalue = 21.632"] ;
6 -> 7 ;
8 [label="RAD <= 1.5\nsquared_error = 6.595\nsamples = 72\nvalue = 20.356"] ;
7 -> 8 ;
9 [label="TAX <= 288.5\nsquared_error = 9.842\nsamples = 3\nvalue = 16.133"] ;
8 -> 9 ;
10 [label="squared_error = 0.0\nsamples = 1\nvalue = 11.9"] ;
9 -> 10 ;
11 [label="LSTAT <= 10.13\nsquared_error = 1.322\nsamples = 2\nvalue = 18.25"] ;
9 -> 11 ;
12 [label="squared_error = 0.0\nsamples = 1\nvalue = 19.4"] ;
11 -> 12 ;
13 [label="squared_error = 0.0\nsamples = 1\nvalue = 17.1"] ;
11 -> 13 ;
14 [label="PTRATIO <= 17.85\nsquared_error = 5.645\nsamples = 69\nvalue = 20.539"] ;
8 -> 14 ;
15 [label="RM <= 5.208\nsquared_error = 6.508\nsamples = 21\nvalue = 21.581"] ;
14 -> 15 ;
16 [label="squared_error = 0.0\nsamples = 1\nvalue = 15.3"] ;
15 -> 16 ;
17 [label="TAX <= 416.5\nsquared_error = 4.762\nsamples = 20\nvalue = 21.895"] ;
15 -> 17 ;
18 [label="PTRATIO <= 17.1\nsquared_error = 4.168\nsamples = 17\nvalue = 22.359"] ;
17 -> 18 ;
19 [label="LSTAT <= 9.94\nsquared_error = 3.137\nsamples = 14\nvalue = 21.814"] ;
18 -> 19 ;
20 [label="AGE <= 84.35\nsquared_error = 0.482\nsamples = 3\nvalue = 23.433"] ;
19 -> 20 ;
21 [label="AGE <= 45.05\nsquared_error = 0.16\nsamples = 2\nvalue = 23.0"] ;
20 -> 21 ;
22 [label="squared_error = 0.0\nsamples = 1\nvalue = 23.4"] ;
21 -> 22 ;
23 [label="squared_error = -0.0\nsamples = 1\nvalue = 22.6"] ;
21 -> 23 ;
24 [label="squared_error = 0.0\nsamples = 1\nvalue = 24.3"] ;
20 -> 24 ;
25 [label="DIS <= 5.948\nsquared_error = 2.951\nsamples = 11\nvalue = 21.373"] ;
19 -> 25 ;
26 [label="AGE <= 94.55\nsquared_error = 2.641\nsamples = 8\nvalue = 21.988"] ;
25 -> 26 ;
27 [label="B <= 396.25\nsquared_error = 0.409\nsamples = 6\nvalue = 22.867"] ;
26 -> 27 ;
28 [label="B <= 310.005\nsquared_error = 0.164\nsamples = 5\nvalue = 23.1"] ;
27 -> 28 ;
29 [label="squared_error = 0.0\nsamples = 1\nvalue = 23.8"] ;
28 -> 29 ;
30 [label="CRIM <= 0.067\nsquared_error = 0.052\nsamples = 4\nvalue = 22.925"] ;
28 -> 30 ;
31 [label="squared_error = 0.0\nsamples = 1\nvalue = 23.3"] ;
30 -> 31 ;
32 [label="NOX <= 0.565\nsquared_error = 0.007\nsamples = 3\nvalue = 22.8"] ;
30 -> 32 ;
33 [label="squared_error = 0.0\nsamples = 1\nvalue = 22.9"] ;
32 -> 33 ;
34 [label="LSTAT <= 11.045\nsquared_error = 0.003\nsamples = 2\nvalue = 22.75"] ;
32 -> 34 ;
35 [label="squared_error = 0.0\nsamples = 1\nvalue = 22.8"] ;
34 -> 35 ;
36 [label="squared_error = 0.0\nsamples = 1\nvalue = 22.7"] ;
34 -> 36 ;
37 [label="squared_error = -0.0\nsamples = 1\nvalue = 21.7"] ;
27 -> 37 ;
38 [label="LSTAT <= 12.655\nsquared_error = 0.063\nsamples = 2\nvalue = 19.35"] ;
26 -> 38 ;
39 [label="squared_error = 0.0\nsamples = 1\nvalue = 19.1"] ;
38 -> 39 ;
40 [label="squared_error = 0.0\nsamples = 1\nvalue = 19.6"] ;
38 -> 40 ;
41 [label="B <= 395.09\nsquared_error = 0.082\nsamples = 3\nvalue = 19.733"] ;
25 -> 41 ;
42 [label="squared_error = 0.0\nsamples = 1\nvalue = 20.1"] ;
41 -> 42 ;
43 [label="AGE <= 38.4\nsquared_error = 0.023\nsamples = 2\nvalue = 19.55"] ;
41 -> 43 ;
44 [label="squared_error = 0.0\nsamples = 1\nvalue = 19.4"] ;
43 -> 44 ;
45 [label="squared_error = 0.0\nsamples = 1\nvalue = 19.7"] ;
43 -> 45 ;
46 [label="CRIM <= 0.207\nsquared_error = 1.14\nsamples = 3\nvalue = 24.9"] ;
18 -> 46 ;
47 [label="squared_error = 0.0\nsamples = 1\nvalue = 26.4"] ;
46 -> 47 ;
48 [label="LSTAT <= 11.265\nsquared_error = 0.022\nsamples = 2\nvalue = 24.15"] ;
46 -> 48 ;
49 [label="squared_error = 0.0\nsamples = 1\nvalue = 24.0"] ;
48 -> 49 ;
50 [label="squared_error = 0.0\nsamples = 1\nvalue = 24.3"] ;
48 -> 50 ;
51 [label="DIS <= 2.753\nsquared_error = 0.002\nsamples = 3\nvalue = 19.267"] ;
17 -> 51 ;
52 [label="squared_error = 0.0\nsamples = 1\nvalue = 19.2"] ;
51 -> 52 ;
53 [label="B <= 386.97\nsquared_error = 0.0\nsamples = 2\nvalue = 19.3"] ;
51 -> 53 ;
54 [label="squared_error = 0.0\nsamples = 1\nvalue = 19.3"] ;
53 -> 54 ;
55 [label="squared_error = 0.0\nsamples = 1\nvalue = 19.3"] ;
53 -> 55 ;
56 [label="AGE <= 44.55\nsquared_error = 4.585\nsamples = 48\nvalue = 20.083"] ;
14 -> 56 ;
57 [label="RM <= 5.722\nsquared_error = 4.28\nsamples = 18\nvalue = 21.133"] ;
56 -> 57 ;
58 [label="DIS <= 3.81\nsquared_error = 1.762\nsamples = 3\nvalue = 17.867"] ;
57 -> 58 ;
59 [label="squared_error = 0.0\nsamples = 1\nvalue = 16.1"] ;
58 -> 59 ;
60 [label="AGE <= 27.85\nsquared_error = 0.302\nsamples = 2\nvalue = 18.75"] ;
58 -> 60 ;
61 [label="squared_error = 0.0\nsamples = 1\nvalue = 18.2"] ;
60 -> 61 ;
62 [label="squared_error = 0.0\nsamples = 1\nvalue = 19.3"] ;
60 -> 62 ;
63 [label="ZN <= 40.0\nsquared_error = 2.222\nsamples = 15\nvalue = 21.787"] ;
57 -> 63 ;
64 [label="DIS <= 3.053\nsquared_error = 1.604\nsamples = 14\nvalue = 22.014"] ;
63 -> 64 ;
65 [label="squared_error = 0.0\nsamples = 1\nvalue = 24.5"] ;
64 -> 65 ;
66 [label="AGE <= 32.35\nsquared_error = 1.216\nsamples = 13\nvalue = 21.823"] ;
64 -> 66 ;
67 [label="INDUS <= 6.015\nsquared_error = 1.118\nsamples = 5\nvalue = 22.82"] ;
66 -> 67 ;
68 [label="squared_error = 0.0\nsamples = 1\nvalue = 24.7"] ;
67 -> 68 ;
69 [label="NOX <= 0.451\nsquared_error = 0.293\nsamples = 4\nvalue = 22.35"] ;
67 -> 69 ;
70 [label="RM <= 5.919\nsquared_error = 0.022\nsamples = 2\nvalue = 21.85"] ;
69 -> 70 ;
71 [label="squared_error = 0.0\nsamples = 1\nvalue = 22.0"] ;
70 -> 71 ;
72 [label="squared_error = -0.0\nsamples = 1\nvalue = 21.7"] ;
70 -> 72 ;
73 [label="INDUS <= 9.365\nsquared_error = 0.062\nsamples = 2\nvalue = 22.85"] ;
69 -> 73 ;
74 [label="squared_error = 0.0\nsamples = 1\nvalue = 23.1"] ;
73 -> 74 ;
75 [label="squared_error = 0.0\nsamples = 1\nvalue = 22.6"] ;
73 -> 75 ;
76 [label="AGE <= 42.9\nsquared_error = 0.268\nsamples = 8\nvalue = 21.2"] ;
66 -> 76 ;
77 [label="RM <= 5.806\nsquared_error = 0.142\nsamples = 7\nvalue = 21.057"] ;
76 -> 77 ;
78 [label="squared_error = 0.0\nsamples = 1\nvalue = 21.8"] ;
77 -> 78 ;
79 [label="NOX <= 0.507\nsquared_error = 0.059\nsamples = 6\nvalue = 20.933"] ;
77 -> 79 ;
80 [label="INDUS <= 6.435\nsquared_error = 0.007\nsamples = 3\nvalue = 21.1"] ;
79 -> 80 ;
81 [label="squared_error = 0.0\nsamples = 1\nvalue = 21.0"] ;
80 -> 81 ;
82 [label="B <= 389.02\nsquared_error = 0.003\nsamples = 2\nvalue = 21.15"] ;
80 -> 82 ;
83 [label="squared_error = 0.0\nsamples = 1\nvalue = 21.1"] ;
82 -> 83 ;
84 [label="squared_error = 0.0\nsamples = 1\nvalue = 21.2"] ;
82 -> 84 ;
85 [label="LSTAT <= 8.26\nsquared_error = 0.056\nsamples = 3\nvalue = 20.767"] ;
79 -> 85 ;
86 [label="squared_error = 0.0\nsamples = 1\nvalue = 21.1"] ;
85 -> 86 ;
87 [label="DIS <= 4.268\nsquared_error = 0.0\nsamples = 2\nvalue = 20.6"] ;
85 -> 87 ;
88 [label="squared_error = 0.0\nsamples = 1\nvalue = 20.6"] ;
87 -> 88 ;
89 [label="squared_error = 0.0\nsamples = 1\nvalue = 20.6"] ;
87 -> 89 ;
90 [label="squared_error = 0.0\nsamples = 1\nvalue = 22.2"] ;
76 -> 90 ;
91 [label="squared_error = -0.0\nsamples = 1\nvalue = 18.6"] ;
63 -> 91 ;
92 [label="LSTAT <= 13.24\nsquared_error = 3.71\nsamples = 30\nvalue = 19.453"] ;
56 -> 92 ;
93 [label="AGE <= 77.2\nsquared_error = 3.445\nsamples = 21\nvalue = 18.819"] ;
92 -> 93 ;
94 [label="INDUS <= 8.915\nsquared_error = 1.427\nsamples = 17\nvalue = 19.488"] ;
93 -> 94 ;
95 [label="LSTAT <= 9.255\nsquared_error = 0.874\nsamples = 13\nvalue = 19.031"] ;
94 -> 95 ;
96 [label="RM <= 5.938\nsquared_error = 0.117\nsamples = 4\nvalue = 20.075"] ;
95 -> 96 ;
97 [label="ZN <= 12.5\nsquared_error = 0.023\nsamples = 2\nvalue = 19.75"] ;
96 -> 97 ;
98 [label="squared_error = 0.0\nsamples = 1\nvalue = 19.9"] ;
97 -> 98 ;
99 [label="squared_error = 0.0\nsamples = 1\nvalue = 19.6"] ;
97 -> 99 ;
100 [label="squared_error = -0.0\nsamples = 2\nvalue = 20.4"] ;
96 -> 100 ;
101 [label="TAX <= 295.5\nsquared_error = 0.511\nsamples = 9\nvalue = 18.567"] ;
95 -> 101 ;
102 [label="B <= 386.185\nsquared_error = 0.239\nsamples = 6\nvalue = 18.967"] ;
101 -> 102 ;
103 [label="squared_error = 0.0\nsamples = 1\nvalue = 20.0"] ;
102 -> 103 ;
104 [label="RM <= 5.914\nsquared_error = 0.03\nsamples = 5\nvalue = 18.76"] ;
102 -> 104 ;
105 [label="RM <= 5.818\nsquared_error = 0.01\nsamples = 2\nvalue = 18.6"] ;
104 -> 105 ;
106 [label="squared_error = 0.0\nsamples = 1\nvalue = 18.7"] ;
105 -> 106 ;
107 [label="squared_error = -0.0\nsamples = 1\nvalue = 18.5"] ;
105 -> 107 ;
108 [label="LSTAT <= 9.485\nsquared_error = 0.016\nsamples = 3\nvalue = 18.867"] ;
104 -> 108 ;
109 [label="squared_error = 0.0\nsamples = 1\nvalue = 18.7"] ;
108 -> 109 ;
110 [label="TAX <= 251.5\nsquared_error = 0.003\nsamples = 2\nvalue = 18.95"] ;
108 -> 110 ;
111 [label="squared_error = 0.0\nsamples = 1\nvalue = 19.0"] ;
110 -> 111 ;
112 [label="squared_error = 0.0\nsamples = 1\nvalue = 18.9"] ;
110 -> 112 ;
113 [label="INDUS <= 7.0\nsquared_error = 0.096\nsamples = 3\nvalue = 17.767"] ;
101 -> 113 ;
114 [label="CRIM <= 0.119\nsquared_error = 0.003\nsamples = 2\nvalue = 17.55"] ;
113 -> 114 ;
115 [label="squared_error = 0.0\nsamples = 1\nvalue = 17.5"] ;
114 -> 115 ;
116 [label="squared_error = -0.0\nsamples = 1\nvalue = 17.6"] ;
114 -> 116 ;
117 [label="squared_error = -0.0\nsamples = 1\nvalue = 18.2"] ;
113 -> 117 ;
118 [label="NOX <= 0.584\nsquared_error = 0.332\nsamples = 4\nvalue = 20.975"] ;
94 -> 118 ;
119 [label="AGE <= 64.95\nsquared_error = 0.022\nsamples = 2\nvalue = 20.45"] ;
118 -> 119 ;
120 [label="squared_error = 0.0\nsamples = 1\nvalue = 20.6"] ;
119 -> 120 ;
121 [label="squared_error = -0.0\nsamples = 1\nvalue = 20.3"] ;
119 -> 121 ;
122 [label="LSTAT <= 12.465\nsquared_error = 0.09\nsamples = 2\nvalue = 21.5"] ;
118 -> 122 ;
123 [label="squared_error = 0.0\nsamples = 1\nvalue = 21.8"] ;
122 -> 123 ;
124 [label="squared_error = 0.0\nsamples = 1\nvalue = 21.2"] ;
122 -> 124 ;
125 [label="DIS <= 4.318\nsquared_error = 2.032\nsamples = 4\nvalue = 15.975"] ;
93 -> 125 ;
126 [label="B <= 386.575\nsquared_error = 0.509\nsamples = 3\nvalue = 15.233"] ;
125 -> 126 ;
127 [label="LSTAT <= 11.575\nsquared_error = 0.062\nsamples = 2\nvalue = 14.75"] ;
126 -> 127 ;
128 [label="squared_error = 0.0\nsamples = 1\nvalue = 15.0"] ;
127 -> 128 ;
129 [label="squared_error = 0.0\nsamples = 1\nvalue = 14.5"] ;
127 -> 129 ;
130 [label="squared_error = 0.0\nsamples = 1\nvalue = 16.2"] ;
126 -> 130 ;
131 [label="squared_error = -0.0\nsamples = 1\nvalue = 18.2"] ;
125 -> 131 ;
132 [label="AGE <= 90.3\nsquared_error = 1.198\nsamples = 9\nvalue = 20.933"] ;
92 -> 132 ;
133 [label="LSTAT <= 14.32\nsquared_error = 0.536\nsamples = 7\nvalue = 20.486"] ;
132 -> 133 ;
134 [label="AGE <= 88.4\nsquared_error = 0.179\nsamples = 6\nvalue = 20.233"] ;
133 -> 134 ;
135 [label="NOX <= 0.634\nsquared_error = 0.118\nsamples = 5\nvalue = 20.36"] ;
134 -> 135 ;
136 [label="RM <= 5.951\nsquared_error = 0.082\nsamples = 4\nvalue = 20.475"] ;
135 -> 136 ;
137 [label="AGE <= 74.55\nsquared_error = 0.002\nsamples = 2\nvalue = 20.75"] ;
136 -> 137 ;
138 [label="squared_error = 0.0\nsamples = 1\nvalue = 20.7"] ;
137 -> 138 ;
139 [label="squared_error = 0.0\nsamples = 1\nvalue = 20.8"] ;
137 -> 139 ;
140 [label="TAX <= 449.5\nsquared_error = 0.01\nsamples = 2\nvalue = 20.2"] ;
136 -> 140 ;
141 [label="squared_error = 0.0\nsamples = 1\nvalue = 20.3"] ;
140 -> 141 ;
142 [label="squared_error = -0.0\nsamples = 1\nvalue = 20.1"] ;
140 -> 142 ;
143 [label="squared_error = -0.0\nsamples = 1\nvalue = 19.9"] ;
135 -> 143 ;
144 [label="squared_error = 0.0\nsamples = 1\nvalue = 19.6"] ;
134 -> 144 ;
145 [label="squared_error = -0.0\nsamples = 1\nvalue = 22.0"] ;
133 -> 145 ;
146 [label="RM <= 4.413\nsquared_error = 0.36\nsamples = 2\nvalue = 22.5"] ;
132 -> 146 ;
147 [label="squared_error = 0.0\nsamples = 1\nvalue = 23.1"] ;
146 -> 147 ;
148 [label="squared_error = 0.0\nsamples = 1\nvalue = 21.9"] ;
146 -> 148 ;
149 [label="TAX <= 222.5\nsquared_error = 7.79\nsamples = 84\nvalue = 22.726"] ;
7 -> 149 ;
150 [label="RM <= 6.148\nsquared_error = 11.18\nsamples = 3\nvalue = 31.5"] ;
149 -> 150 ;
151 [label="squared_error = 0.0\nsamples = 1\nvalue = 36.2"] ;
150 -> 151 ;
152 [label="CRIM <= 0.045\nsquared_error = 0.202\nsamples = 2\nvalue = 29.15"] ;
150 -> 152 ;
153 [label="squared_error = 0.0\nsamples = 1\nvalue = 28.7"] ;
152 -> 153 ;
154 [label="squared_error = 0.0\nsamples = 1\nvalue = 29.6"] ;
152 -> 154 ;
155 [label="LSTAT <= 9.98\nsquared_error = 4.708\nsamples = 81\nvalue = 22.401"] ;
149 -> 155 ;
156 [label="CRIM <= 0.052\nsquared_error = 3.626\nsamples = 49\nvalue = 23.302"] ;
155 -> 156 ;
157 [label="TAX <= 386.5\nsquared_error = 3.299\nsamples = 18\nvalue = 21.917"] ;
156 -> 157 ;
158 [label="ZN <= 23.0\nsquared_error = 1.376\nsamples = 16\nvalue = 22.387"] ;
157 -> 158 ;
159 [label="RM <= 6.313\nsquared_error = 0.479\nsamples = 6\nvalue = 21.267"] ;
158 -> 159 ;
160 [label="LSTAT <= 7.915\nsquared_error = 0.007\nsamples = 3\nvalue = 20.6"] ;
159 -> 160 ;
161 [label="squared_error = 0.0\nsamples = 1\nvalue = 20.7"] ;
160 -> 161 ;
162 [label="ZN <= 10.5\nsquared_error = 0.003\nsamples = 2\nvalue = 20.55"] ;
160 -> 162 ;
163 [label="squared_error = 0.0\nsamples = 1\nvalue = 20.6"] ;
162 -> 163 ;
164 [label="squared_error = 0.0\nsamples = 1\nvalue = 20.5"] ;
162 -> 164 ;
165 [label="INDUS <= 6.13\nsquared_error = 0.062\nsamples = 3\nvalue = 21.933"] ;
159 -> 165 ;
166 [label="INDUS <= 4.3\nsquared_error = 0.01\nsamples = 2\nvalue = 22.1"] ;
165 -> 166 ;
167 [label="squared_error = 0.0\nsamples = 1\nvalue = 22.0"] ;
166 -> 167 ;
168 [label="squared_error = -0.0\nsamples = 1\nvalue = 22.2"] ;
166 -> 168 ;
169 [label="squared_error = 0.0\nsamples = 1\nvalue = 21.6"] ;
165 -> 169 ;
170 [label="INDUS <= 2.14\nsquared_error = 0.708\nsamples = 10\nvalue = 23.06"] ;
158 -> 170 ;
171 [label="LSTAT <= 6.6\nsquared_error = 0.09\nsamples = 2\nvalue = 24.4"] ;
170 -> 171 ;
172 [label="squared_error = 0.0\nsamples = 1\nvalue = 24.7"] ;
171 -> 172 ;
173 [label="squared_error = 0.0\nsamples = 1\nvalue = 24.1"] ;
171 -> 173 ;
174 [label="RAD <= 2.5\nsquared_error = 0.302\nsamples = 8\nvalue = 22.725"] ;
170 -> 174 ;
175 [label="PTRATIO <= 15.85\nsquared_error = 0.002\nsamples = 2\nvalue = 21.95"] ;
174 -> 175 ;
176 [label="squared_error = 0.0\nsamples = 1\nvalue = 22.0"] ;
175 -> 176 ;
177 [label="squared_error = -0.0\nsamples = 1\nvalue = 21.9"] ;
175 -> 177 ;
178 [label="CRIM <= 0.044\nsquared_error = 0.135\nsamples = 6\nvalue = 22.983"] ;
174 -> 178 ;
179 [label="LSTAT <= 5.515\nsquared_error = 0.05\nsamples = 5\nvalue = 23.12"] ;
178 -> 179 ;
180 [label="squared_error = 0.0\nsamples = 1\nvalue = 23.5"] ;
179 -> 180 ;
181 [label="TAX <= 287.0\nsquared_error = 0.017\nsamples = 4\nvalue = 23.025"] ;
179 -> 181 ;
182 [label="squared_error = 0.0\nsamples = 2\nvalue = 22.9"] ;
181 -> 182 ;
183 [label="DIS <= 7.926\nsquared_error = 0.003\nsamples = 2\nvalue = 23.15"] ;
181 -> 183 ;
184 [label="squared_error = 0.0\nsamples = 1\nvalue = 23.2"] ;
183 -> 184 ;
185 [label="squared_error = 0.0\nsamples = 1\nvalue = 23.1"] ;
183 -> 185 ;
186 [label="squared_error = 0.0\nsamples = 1\nvalue = 22.3"] ;
178 -> 186 ;
187 [label="PTRATIO <= 16.4\nsquared_error = 2.722\nsamples = 2\nvalue = 18.15"] ;
157 -> 187 ;
188 [label="squared_error = 0.0\nsamples = 1\nvalue = 16.5"] ;
187 -> 188 ;
189 [label="squared_error = 0.0\nsamples = 1\nvalue = 19.8"] ;
187 -> 189 ;
190 [label="LSTAT <= 8.625\nsquared_error = 2.054\nsamples = 31\nvalue = 24.106"] ;
156 -> 190 ;
191 [label="B <= 351.615\nsquared_error = 1.507\nsamples = 25\nvalue = 23.76"] ;
190 -> 191 ;
192 [label="squared_error = 0.0\nsamples = 1\nvalue = 27.0"] ;
191 -> 192 ;
193 [label="AGE <= 15.95\nsquared_error = 1.114\nsamples = 24\nvalue = 23.625"] ;
191 -> 193 ;
194 [label="CRIM <= 0.134\nsquared_error = 0.227\nsamples = 7\nvalue = 24.514"] ;
193 -> 194 ;
195 [label="AGE <= 6.9\nsquared_error = 0.04\nsamples = 2\nvalue = 23.9"] ;
194 -> 195 ;
196 [label="squared_error = 0.0\nsamples = 1\nvalue = 24.1"] ;
195 -> 196 ;
197 [label="squared_error = 0.0\nsamples = 1\nvalue = 23.7"] ;
195 -> 197 ;
198 [label="RM <= 6.19\nsquared_error = 0.09\nsamples = 5\nvalue = 24.76"] ;
194 -> 198 ;
199 [label="squared_error = 0.0\nsamples = 1\nvalue = 25.3"] ;
198 -> 199 ;
200 [label="B <= 395.37\nsquared_error = 0.022\nsamples = 4\nvalue = 24.625"] ;
198 -> 200 ;
201 [label="TAX <= 308.5\nsquared_error = 0.007\nsamples = 3\nvalue = 24.7"] ;
200 -> 201 ;
202 [label="DIS <= 5.568\nsquared_error = 0.003\nsamples = 2\nvalue = 24.65"] ;
201 -> 202 ;
203 [label="squared_error = 0.0\nsamples = 1\nvalue = 24.6"] ;
202 -> 203 ;
204 [label="squared_error = 0.0\nsamples = 1\nvalue = 24.7"] ;
202 -> 204 ;
205 [label="squared_error = 0.0\nsamples = 1\nvalue = 24.8"] ;
201 -> 205 ;
206 [label="squared_error = -0.0\nsamples = 1\nvalue = 24.4"] ;
200 -> 206 ;
207 [label="CRIM <= 0.058\nsquared_error = 1.02\nsamples = 17\nvalue = 23.259"] ;
193 -> 207 ;
208 [label="RM <= 6.413\nsquared_error = 0.04\nsamples = 2\nvalue = 24.8"] ;
207 -> 208 ;
209 [label="squared_error = 0.0\nsamples = 1\nvalue = 24.6"] ;
208 -> 209 ;
210 [label="squared_error = 0.0\nsamples = 1\nvalue = 25.0"] ;
208 -> 210 ;
211 [label="RAD <= 16.0\nsquared_error = 0.792\nsamples = 15\nvalue = 23.053"] ;
207 -> 211 ;
212 [label="RM <= 6.468\nsquared_error = 0.558\nsamples = 14\nvalue = 22.914"] ;
211 -> 212 ;
213 [label="DIS <= 4.144\nsquared_error = 0.414\nsamples = 10\nvalue = 22.65"] ;
212 -> 213 ;
214 [label="AGE <= 69.8\nsquared_error = 0.069\nsamples = 3\nvalue = 21.967"] ;
213 -> 214 ;
215 [label="TAX <= 275.5\nsquared_error = 0.002\nsamples = 2\nvalue = 22.15"] ;
214 -> 215 ;
216 [label="squared_error = 0.0\nsamples = 1\nvalue = 22.2"] ;
215 -> 216 ;
217 [label="squared_error = 0.0\nsamples = 1\nvalue = 22.1"] ;
215 -> 217 ;
218 [label="squared_error = -0.0\nsamples = 1\nvalue = 21.6"] ;
214 -> 218 ;
219 [label="RM <= 6.228\nsquared_error = 0.277\nsamples = 7\nvalue = 22.943"] ;
213 -> 219 ;
220 [label="DIS <= 6.659\nsquared_error = 0.09\nsamples = 2\nvalue = 23.6"] ;
219 -> 220 ;
221 [label="squared_error = 0.0\nsamples = 1\nvalue = 23.9"] ;
220 -> 221 ;
222 [label="squared_error = -0.0\nsamples = 1\nvalue = 23.3"] ;
220 -> 222 ;
223 [label="INDUS <= 6.255\nsquared_error = 0.11\nsamples = 5\nvalue = 22.68"] ;
219 -> 223 ;
224 [label="CRIM <= 0.089\nsquared_error = 0.029\nsamples = 3\nvalue = 22.433"] ;
223 -> 224 ;
225 [label="PTRATIO <= 15.85\nsquared_error = 0.003\nsamples = 2\nvalue = 22.55"] ;
224 -> 225 ;
226 [label="squared_error = 0.0\nsamples = 1\nvalue = 22.5"] ;
225 -> 226 ;
227 [label="squared_error = -0.0\nsamples = 1\nvalue = 22.6"] ;
225 -> 227 ;
228 [label="squared_error = -0.0\nsamples = 1\nvalue = 22.2"] ;
224 -> 228 ;
229 [label="RM <= 6.344\nsquared_error = 0.003\nsamples = 2\nvalue = 23.05"] ;
223 -> 229 ;
230 [label="squared_error = 0.0\nsamples = 1\nvalue = 23.0"] ;
229 -> 230 ;
231 [label="squared_error = 0.0\nsamples = 1\nvalue = 23.1"] ;
229 -> 231 ;
232 [label="TAX <= 261.5\nsquared_error = 0.307\nsamples = 4\nvalue = 23.575"] ;
212 -> 232 ;
233 [label="squared_error = 0.0\nsamples = 1\nvalue = 24.4"] ;
232 -> 233 ;
234 [label="CRIM <= 0.072\nsquared_error = 0.107\nsamples = 3\nvalue = 23.3"] ;
232 -> 234 ;
235 [label="squared_error = 0.0\nsamples = 1\nvalue = 22.9"] ;
234 -> 235 ;
236 [label="CRIM <= 0.754\nsquared_error = 0.04\nsamples = 2\nvalue = 23.5"] ;
234 -> 236 ;
237 [label="squared_error = 0.0\nsamples = 1\nvalue = 23.7"] ;
236 -> 237 ;
238 [label="squared_error = 0.0\nsamples = 1\nvalue = 23.3"] ;
236 -> 238 ;
239 [label="squared_error = 0.0\nsamples = 1\nvalue = 25.0"] ;
211 -> 239 ;
240 [label="AGE <= 33.6\nsquared_error = 1.749\nsamples = 6\nvalue = 25.55"] ;
190 -> 240 ;
241 [label="CRIM <= 0.117\nsquared_error = 0.723\nsamples = 2\nvalue = 27.25"] ;
240 -> 241 ;
242 [label="squared_error = 0.0\nsamples = 1\nvalue = 26.4"] ;
241 -> 242 ;
243 [label="squared_error = 0.0\nsamples = 1\nvalue = 28.1"] ;
241 -> 243 ;
244 [label="PTRATIO <= 18.85\nsquared_error = 0.095\nsamples = 4\nvalue = 24.7"] ;
240 -> 244 ;
245 [label="squared_error = 0.0\nsamples = 2\nvalue = 25.0"] ;
244 -> 245 ;
246 [label="RM <= 6.27\nsquared_error = 0.01\nsamples = 2\nvalue = 24.4"] ;
244 -> 246 ;
247 [label="squared_error = 0.0\nsamples = 1\nvalue = 24.3"] ;
246 -> 247 ;
248 [label="squared_error = 0.0\nsamples = 1\nvalue = 24.5"] ;
246 -> 248 ;
249 [label="B <= 197.52\nsquared_error = 3.219\nsamples = 32\nvalue = 21.022"] ;
155 -> 249 ;
250 [label="NOX <= 0.552\nsquared_error = 1.562\nsamples = 2\nvalue = 17.35"] ;
249 -> 250 ;
251 [label="squared_error = 0.0\nsamples = 1\nvalue = 18.6"] ;
250 -> 251 ;
252 [label="squared_error = 0.0\nsamples = 1\nvalue = 16.1"] ;
250 -> 252 ;
253 [label="PTRATIO <= 20.55\nsquared_error = 2.37\nsamples = 30\nvalue = 21.267"] ;
249 -> 253 ;
254 [label="RM <= 6.318\nsquared_error = 2.018\nsamples = 24\nvalue = 21.633"] ;
253 -> 254 ;
255 [label="RM <= 6.25\nsquared_error = 1.41\nsamples = 15\nvalue = 21.02"] ;
254 -> 255 ;
256 [label="CRIM <= 2.959\nsquared_error = 0.751\nsamples = 12\nvalue = 21.45"] ;
255 -> 256 ;
257 [label="ZN <= 11.0\nsquared_error = 0.229\nsamples = 7\nvalue = 20.9"] ;
256 -> 257 ;
258 [label="B <= 392.565\nsquared_error = 0.037\nsamples = 4\nvalue = 21.275"] ;
257 -> 258 ;
259 [label="RM <= 6.143\nsquared_error = 0.002\nsamples = 2\nvalue = 21.45"] ;
258 -> 259 ;
260 [label="squared_error = 0.0\nsamples = 1\nvalue = 21.5"] ;
259 -> 260 ;
261 [label="squared_error = 0.0\nsamples = 1\nvalue = 21.4"] ;
259 -> 261 ;
262 [label="LSTAT <= 12.385\nsquared_error = 0.01\nsamples = 2\nvalue = 21.1"] ;
258 -> 262 ;
263 [label="squared_error = 0.0\nsamples = 1\nvalue = 21.2"] ;
262 -> 263 ;
264 [label="squared_error = -0.0\nsamples = 1\nvalue = 21.0"] ;
262 -> 264 ;
265 [label="INDUS <= 3.81\nsquared_error = 0.047\nsamples = 3\nvalue = 20.4"] ;
257 -> 265 ;
266 [label="squared_error = 0.0\nsamples = 1\nvalue = 20.1"] ;
265 -> 266 ;
267 [label="RM <= 6.237\nsquared_error = 0.003\nsamples = 2\nvalue = 20.55"] ;
265 -> 267 ;
268 [label="squared_error = 0.0\nsamples = 1\nvalue = 20.5"] ;
267 -> 268 ;
269 [label="squared_error = 0.0\nsamples = 1\nvalue = 20.6"] ;
267 -> 269 ;
270 [label="LSTAT <= 12.89\nsquared_error = 0.466\nsamples = 5\nvalue = 22.22"] ;
256 -> 270 ;
271 [label="DIS <= 3.073\nsquared_error = 0.029\nsamples = 3\nvalue = 22.767"] ;
270 -> 271 ;
272 [label="DIS <= 2.616\nsquared_error = 0.002\nsamples = 2\nvalue = 22.65"] ;
271 -> 272 ;
273 [label="squared_error = 0.0\nsamples = 1\nvalue = 22.6"] ;
272 -> 273 ;
274 [label="squared_error = 0.0\nsamples = 1\nvalue = 22.7"] ;
272 -> 274 ;
275 [label="squared_error = 0.0\nsamples = 1\nvalue = 23.0"] ;
271 -> 275 ;
276 [label="squared_error = -0.0\nsamples = 2\nvalue = 21.4"] ;
270 -> 276 ;
277 [label="TAX <= 549.0\nsquared_error = 0.347\nsamples = 3\nvalue = 19.3"] ;
255 -> 277 ;
278 [label="squared_error = 0.0\nsamples = 1\nvalue = 18.5"] ;
277 -> 278 ;
279 [label="AGE <= 87.05\nsquared_error = 0.04\nsamples = 2\nvalue = 19.7"] ;
277 -> 279 ;
280 [label="squared_error = 0.0\nsamples = 1\nvalue = 19.5"] ;
279 -> 280 ;
281 [label="squared_error = 0.0\nsamples = 1\nvalue = 19.9"] ;
279 -> 281 ;
282 [label="CRIM <= 3.709\nsquared_error = 1.36\nsamples = 9\nvalue = 22.656"] ;
254 -> 282 ;
283 [label="RM <= 6.342\nsquared_error = 0.52\nsamples = 7\nvalue = 23.143"] ;
282 -> 283 ;
284 [label="PTRATIO <= 16.65\nsquared_error = 0.09\nsamples = 2\nvalue = 24.1"] ;
283 -> 284 ;
285 [label="squared_error = 0.0\nsamples = 1\nvalue = 23.8"] ;
284 -> 285 ;
286 [label="squared_error = -0.0\nsamples = 1\nvalue = 24.4"] ;
284 -> 286 ;
287 [label="B <= 383.06\nsquared_error = 0.178\nsamples = 5\nvalue = 22.76"] ;
283 -> 287 ;
288 [label="ZN <= 15.0\nsquared_error = 0.002\nsamples = 2\nvalue = 22.25"] ;
287 -> 288 ;
289 [label="squared_error = 0.0\nsamples = 1\nvalue = 22.3"] ;
288 -> 289 ;
290 [label="squared_error = 0.0\nsamples = 1\nvalue = 22.2"] ;
288 -> 290 ;
291 [label="RM <= 6.378\nsquared_error = 0.007\nsamples = 3\nvalue = 23.1"] ;
287 -> 291 ;
292 [label="squared_error = 0.0\nsamples = 1\nvalue = 23.0"] ;
291 -> 292 ;
293 [label="DIS <= 3.215\nsquared_error = 0.003\nsamples = 2\nvalue = 23.15"] ;
291 -> 293 ;
294 [label="squared_error = 0.0\nsamples = 1\nvalue = 23.2"] ;
293 -> 294 ;
295 [label="squared_error = 0.0\nsamples = 1\nvalue = 23.1"] ;
293 -> 295 ;
296 [label="CRIM <= 4.835\nsquared_error = 0.563\nsamples = 2\nvalue = 20.95"] ;
282 -> 296 ;
297 [label="squared_error = 0.0\nsamples = 1\nvalue = 21.7"] ;
296 -> 297 ;
298 [label="squared_error = 0.0\nsamples = 1\nvalue = 20.2"] ;
296 -> 298 ;
299 [label="AGE <= 86.3\nsquared_error = 1.09\nsamples = 6\nvalue = 19.8"] ;
253 -> 299 ;
300 [label="RM <= 6.161\nsquared_error = 0.423\nsamples = 2\nvalue = 21.05"] ;
299 -> 300 ;
301 [label="squared_error = 0.0\nsamples = 1\nvalue = 20.4"] ;
300 -> 301 ;
302 [label="squared_error = 0.0\nsamples = 1\nvalue = 21.7"] ;
300 -> 302 ;
303 [label="RM <= 6.484\nsquared_error = 0.252\nsamples = 4\nvalue = 19.175"] ;
299 -> 303 ;
304 [label="RM <= 6.466\nsquared_error = 0.069\nsamples = 3\nvalue = 19.433"] ;
303 -> 304 ;
305 [label="DIS <= 2.417\nsquared_error = 0.002\nsamples = 2\nvalue = 19.25"] ;
304 -> 305 ;
306 [label="squared_error = 0.0\nsamples = 1\nvalue = 19.2"] ;
305 -> 306 ;
307 [label="squared_error = 0.0\nsamples = 1\nvalue = 19.3"] ;
305 -> 307 ;
308 [label="squared_error = 0.0\nsamples = 1\nvalue = 19.8"] ;
304 -> 308 ;
309 [label="squared_error = 0.0\nsamples = 1\nvalue = 18.4"] ;
303 -> 309 ;
310 [label="LSTAT <= 5.785\nsquared_error = 12.03\nsamples = 43\nvalue = 27.498"] ;
6 -> 310 ;
311 [label="PTRATIO <= 17.85\nsquared_error = 7.77\nsamples = 16\nvalue = 30.05"] ;
310 -> 311 ;
312 [label="B <= 393.41\nsquared_error = 2.711\nsamples = 12\nvalue = 31.292"] ;
311 -> 312 ;
313 [label="RM <= 6.734\nsquared_error = 0.712\nsamples = 8\nvalue = 30.35"] ;
312 -> 313 ;
314 [label="AGE <= 34.6\nsquared_error = 0.145\nsamples = 4\nvalue = 29.6"] ;
313 -> 314 ;
315 [label="CRIM <= 0.096\nsquared_error = 0.082\nsamples = 3\nvalue = 29.433"] ;
314 -> 315 ;
316 [label="TAX <= 280.5\nsquared_error = 0.022\nsamples = 2\nvalue = 29.25"] ;
315 -> 316 ;
317 [label="squared_error = 0.0\nsamples = 1\nvalue = 29.1"] ;
316 -> 317 ;
318 [label="squared_error = 0.0\nsamples = 1\nvalue = 29.4"] ;
316 -> 318 ;
319 [label="squared_error = 0.0\nsamples = 1\nvalue = 29.8"] ;
315 -> 319 ;
320 [label="squared_error = -0.0\nsamples = 1\nvalue = 30.1"] ;
314 -> 320 ;
321 [label="ZN <= 50.0\nsquared_error = 0.155\nsamples = 4\nvalue = 31.1"] ;
313 -> 321 ;
322 [label="squared_error = 0.0\nsamples = 1\nvalue = 30.5"] ;
321 -> 322 ;
323 [label="ZN <= 80.0\nsquared_error = 0.047\nsamples = 3\nvalue = 31.3"] ;
321 -> 323 ;
324 [label="B <= 390.67\nsquared_error = 0.002\nsamples = 2\nvalue = 31.15"] ;
323 -> 324 ;
325 [label="squared_error = 0.0\nsamples = 1\nvalue = 31.2"] ;
324 -> 325 ;
326 [label="squared_error = 0.0\nsamples = 1\nvalue = 31.1"] ;
324 -> 326 ;
327 [label="squared_error = -0.0\nsamples = 1\nvalue = 31.6"] ;
323 -> 327 ;
328 [label="CRIM <= 0.155\nsquared_error = 1.387\nsamples = 4\nvalue = 33.175"] ;
312 -> 328 ;
329 [label="B <= 395.175\nsquared_error = 0.202\nsamples = 3\nvalue = 32.533"] ;
328 -> 329 ;
330 [label="squared_error = 0.0\nsamples = 1\nvalue = 33.1"] ;
329 -> 330 ;
331 [label="INDUS <= 4.435\nsquared_error = 0.062\nsamples = 2\nvalue = 32.25"] ;
329 -> 331 ;
332 [label="squared_error = 0.0\nsamples = 1\nvalue = 32.5"] ;
331 -> 332 ;
333 [label="squared_error = 0.0\nsamples = 1\nvalue = 32.0"] ;
331 -> 333 ;
334 [label="squared_error = 0.0\nsamples = 1\nvalue = 35.1"] ;
328 -> 334 ;
335 [label="LSTAT <= 4.62\nsquared_error = 4.447\nsamples = 4\nvalue = 26.325"] ;
311 -> 335 ;
336 [label="squared_error = 0.0\nsamples = 1\nvalue = 22.8"] ;
335 -> 336 ;
337 [label="RM <= 6.749\nsquared_error = 0.407\nsamples = 3\nvalue = 27.5"] ;
335 -> 337 ;
338 [label="AGE <= 28.45\nsquared_error = 0.002\nsamples = 2\nvalue = 27.95"] ;
337 -> 338 ;
339 [label="squared_error = 0.0\nsamples = 1\nvalue = 27.9"] ;
338 -> 339 ;
340 [label="squared_error = -0.0\nsamples = 1\nvalue = 28.0"] ;
338 -> 340 ;
341 [label="squared_error = -0.0\nsamples = 1\nvalue = 26.6"] ;
337 -> 341 ;
342 [label="DIS <= 3.968\nsquared_error = 8.407\nsamples = 27\nvalue = 25.985"] ;
310 -> 342 ;
343 [label="INDUS <= 9.23\nsquared_error = 9.042\nsamples = 12\nvalue = 27.6"] ;
342 -> 343 ;
344 [label="LSTAT <= 8.265\nsquared_error = 2.125\nsamples = 8\nvalue = 29.238"] ;
343 -> 344 ;
345 [label="AGE <= 49.45\nsquared_error = 1.308\nsamples = 5\nvalue = 30.1"] ;
344 -> 345 ;
346 [label="squared_error = 0.0\nsamples = 1\nvalue = 32.0"] ;
345 -> 346 ;
347 [label="DIS <= 3.384\nsquared_error = 0.507\nsamples = 4\nvalue = 29.625"] ;
345 -> 347 ;
348 [label="B <= 391.6\nsquared_error = 0.009\nsamples = 3\nvalue = 30.033"] ;
347 -> 348 ;
349 [label="squared_error = 0.0\nsamples = 1\nvalue = 29.9"] ;
348 -> 349 ;
350 [label="RAD <= 6.5\nsquared_error = 0.0\nsamples = 2\nvalue = 30.1"] ;
348 -> 350 ;
351 [label="squared_error = 0.0\nsamples = 1\nvalue = 30.1"] ;
350 -> 351 ;
352 [label="squared_error = 0.0\nsamples = 1\nvalue = 30.1"] ;
350 -> 352 ;
353 [label="squared_error = -0.0\nsamples = 1\nvalue = 28.4"] ;
347 -> 353 ;
354 [label="AGE <= 67.9\nsquared_error = 0.18\nsamples = 3\nvalue = 27.8"] ;
344 -> 354 ;
355 [label="squared_error = 0.0\nsamples = 1\nvalue = 28.4"] ;
354 -> 355 ;
356 [label="squared_error = -0.0\nsamples = 2\nvalue = 27.5"] ;
354 -> 356 ;
357 [label="INDUS <= 12.91\nsquared_error = 6.787\nsamples = 4\nvalue = 24.325"] ;
343 -> 357 ;
358 [label="INDUS <= 9.955\nsquared_error = 0.542\nsamples = 3\nvalue = 22.867"] ;
357 -> 358 ;
359 [label="squared_error = 0.0\nsamples = 1\nvalue = 23.8"] ;
358 -> 359 ;
360 [label="DIS <= 2.533\nsquared_error = 0.16\nsamples = 2\nvalue = 22.4"] ;
358 -> 360 ;
361 [label="squared_error = 0.0\nsamples = 1\nvalue = 22.0"] ;
360 -> 361 ;
362 [label="squared_error = 0.0\nsamples = 1\nvalue = 22.8"] ;
360 -> 362 ;
363 [label="squared_error = -0.0\nsamples = 1\nvalue = 28.7"] ;
357 -> 363 ;
364 [label="LSTAT <= 10.46\nsquared_error = 4.145\nsamples = 15\nvalue = 24.693"] ;
342 -> 364 ;
365 [label="ZN <= 23.5\nsquared_error = 2.934\nsamples = 13\nvalue = 25.185"] ;
364 -> 365 ;
366 [label="LSTAT <= 6.4\nsquared_error = 1.318\nsamples = 5\nvalue = 26.72"] ;
365 -> 366 ;
367 [label="squared_error = 0.0\nsamples = 1\nvalue = 28.6"] ;
366 -> 367 ;
368 [label="B <= 390.375\nsquared_error = 0.542\nsamples = 4\nvalue = 26.25"] ;
366 -> 368 ;
369 [label="squared_error = 0.0\nsamples = 1\nvalue = 25.1"] ;
368 -> 369 ;
370 [label="INDUS <= 9.89\nsquared_error = 0.136\nsamples = 3\nvalue = 26.633"] ;
368 -> 370 ;
371 [label="DIS <= 6.132\nsquared_error = 0.04\nsamples = 2\nvalue = 26.4"] ;
370 -> 371 ;
372 [label="squared_error = 0.0\nsamples = 1\nvalue = 26.6"] ;
371 -> 372 ;
373 [label="squared_error = 0.0\nsamples = 1\nvalue = 26.2"] ;
371 -> 373 ;
374 [label="squared_error = 0.0\nsamples = 1\nvalue = 27.1"] ;
370 -> 374 ;
375 [label="DIS <= 6.754\nsquared_error = 1.549\nsamples = 8\nvalue = 24.225"] ;
365 -> 375 ;
376 [label="AGE <= 41.3\nsquared_error = 0.602\nsamples = 4\nvalue = 23.275"] ;
375 -> 376 ;
377 [label="squared_error = 0.0\nsamples = 1\nvalue = 22.0"] ;
376 -> 377 ;
378 [label="RM <= 6.612\nsquared_error = 0.08\nsamples = 3\nvalue = 23.7"] ;
376 -> 378 ;
379 [label="squared_error = 0.0\nsamples = 1\nvalue = 23.3"] ;
378 -> 379 ;
380 [label="TAX <= 325.5\nsquared_error = 0.0\nsamples = 2\nvalue = 23.9"] ;
378 -> 380 ;
381 [label="squared_error = 0.0\nsamples = 1\nvalue = 23.9"] ;
380 -> 381 ;
382 [label="squared_error = 0.0\nsamples = 1\nvalue = 23.9"] ;
380 -> 382 ;
383 [label="RAD <= 2.5\nsquared_error = 0.692\nsamples = 4\nvalue = 25.175"] ;
375 -> 383 ;
384 [label="squared_error = 0.0\nsamples = 1\nvalue = 26.6"] ;
383 -> 384 ;
385 [label="ZN <= 75.0\nsquared_error = 0.02\nsamples = 3\nvalue = 24.7"] ;
383 -> 385 ;
386 [label="ZN <= 61.25\nsquared_error = 0.0\nsamples = 2\nvalue = 24.8"] ;
385 -> 386 ;
387 [label="squared_error = 0.0\nsamples = 1\nvalue = 24.8"] ;
386 -> 387 ;
388 [label="squared_error = 0.0\nsamples = 1\nvalue = 24.8"] ;
386 -> 388 ;
389 [label="squared_error = 0.0\nsamples = 1\nvalue = 24.5"] ;
385 -> 389 ;
390 [label="ZN <= 15.0\nsquared_error = 0.25\nsamples = 2\nvalue = 21.5"] ;
364 -> 390 ;
391 [label="squared_error = 0.0\nsamples = 1\nvalue = 21.0"] ;
390 -> 391 ;
392 [label="squared_error = 0.0\nsamples = 1\nvalue = 22.0"] ;
390 -> 392 ;
393 [label="CRIM <= 6.926\nsquared_error = 19.005\nsamples = 134\nvalue = 14.829"] ;
1 -> 393 ;
394 [label="AGE <= 73.3\nsquared_error = 10.401\nsamples = 76\nvalue = 17.062"] ;
393 -> 394 ;
395 [label="B <= 395.095\nsquared_error = 2.518\nsamples = 10\nvalue = 21.22"] ;
394 -> 395 ;
396 [label="CRIM <= 0.155\nsquared_error = 1.103\nsamples = 6\nvalue = 22.3"] ;
395 -> 396 ;
397 [label="RAD <= 5.5\nsquared_error = 0.423\nsamples = 2\nvalue = 21.05"] ;
396 -> 397 ;
398 [label="squared_error = 0.0\nsamples = 1\nvalue = 21.7"] ;
397 -> 398 ;
399 [label="squared_error = 0.0\nsamples = 1\nvalue = 20.4"] ;
397 -> 399 ;
400 [label="DIS <= 3.62\nsquared_error = 0.272\nsamples = 4\nvalue = 22.925"] ;
396 -> 400 ;
401 [label="CRIM <= 0.234\nsquared_error = 0.09\nsamples = 2\nvalue = 23.4"] ;
400 -> 401 ;
402 [label="squared_error = 0.0\nsamples = 1\nvalue = 23.1"] ;
401 -> 402 ;
403 [label="squared_error = 0.0\nsamples = 1\nvalue = 23.7"] ;
401 -> 403 ;
404 [label="LSTAT <= 17.045\nsquared_error = 0.003\nsamples = 2\nvalue = 22.45"] ;
400 -> 404 ;
405 [label="squared_error = 0.0\nsamples = 1\nvalue = 22.4"] ;
404 -> 405 ;
406 [label="squared_error = 0.0\nsamples = 1\nvalue = 22.5"] ;
404 -> 406 ;
407 [label="RAD <= 3.5\nsquared_error = 0.265\nsamples = 4\nvalue = 19.6"] ;
395 -> 407 ;
408 [label="NOX <= 0.429\nsquared_error = 0.062\nsamples = 2\nvalue = 19.15"] ;
407 -> 408 ;
409 [label="squared_error = 0.0\nsamples = 1\nvalue = 18.9"] ;
408 -> 409 ;
410 [label="squared_error = 0.0\nsamples = 1\nvalue = 19.4"] ;
408 -> 410 ;
411 [label="CRIM <= 0.193\nsquared_error = 0.062\nsamples = 2\nvalue = 20.05"] ;
407 -> 411 ;
412 [label="squared_error = 0.0\nsamples = 1\nvalue = 20.3"] ;
411 -> 412 ;
413 [label="squared_error = 0.0\nsamples = 1\nvalue = 19.8"] ;
411 -> 413 ;
414 [label="CRIM <= 0.172\nsquared_error = 8.579\nsamples = 66\nvalue = 16.432"] ;
394 -> 414 ;
415 [label="RM <= 6.079\nsquared_error = 9.682\nsamples = 9\nvalue = 19.733"] ;
414 -> 415 ;
416 [label="DIS <= 1.969\nsquared_error = 3.261\nsamples = 8\nvalue = 18.813"] ;
415 -> 416 ;
417 [label="PTRATIO <= 19.6\nsquared_error = 1.103\nsamples = 2\nvalue = 16.25"] ;
416 -> 417 ;
418 [label="squared_error = 0.0\nsamples = 1\nvalue = 17.3"] ;
417 -> 418 ;
419 [label="squared_error = 0.0\nsamples = 1\nvalue = 15.2"] ;
417 -> 419 ;
420 [label="RM <= 5.944\nsquared_error = 1.062\nsamples = 6\nvalue = 19.667"] ;
416 -> 420 ;
421 [label="NOX <= 0.533\nsquared_error = 0.257\nsamples = 4\nvalue = 19.025"] ;
420 -> 421 ;
422 [label="squared_error = 0.0\nsamples = 2\nvalue = 19.5"] ;
421 -> 422 ;
423 [label="DIS <= 2.408\nsquared_error = 0.063\nsamples = 2\nvalue = 18.55"] ;
421 -> 423 ;
424 [label="squared_error = 0.0\nsamples = 1\nvalue = 18.8"] ;
423 -> 424 ;
425 [label="squared_error = 0.0\nsamples = 1\nvalue = 18.3"] ;
423 -> 425 ;
426 [label="B <= 381.555\nsquared_error = 0.202\nsamples = 2\nvalue = 20.95"] ;
420 -> 426 ;
427 [label="squared_error = 0.0\nsamples = 1\nvalue = 20.5"] ;
426 -> 427 ;
428 [label="squared_error = 0.0\nsamples = 1\nvalue = 21.4"] ;
426 -> 428 ;
429 [label="squared_error = 0.0\nsamples = 1\nvalue = 27.1"] ;
415 -> 429 ;
430 [label="AGE <= 93.9\nsquared_error = 6.412\nsamples = 57\nvalue = 15.911"] ;
414 -> 430 ;
431 [label="B <= 378.165\nsquared_error = 6.3\nsamples = 24\nvalue = 17.15"] ;
430 -> 431 ;
432 [label="B <= 329.71\nsquared_error = 3.069\nsamples = 12\nvalue = 15.458"] ;
431 -> 432 ;
433 [label="LSTAT <= 17.36\nsquared_error = 3.044\nsamples = 8\nvalue = 14.787"] ;
432 -> 433 ;
434 [label="B <= 55.01\nsquared_error = 3.35\nsamples = 5\nvalue = 15.52"] ;
433 -> 434 ;
435 [label="squared_error = 0.0\nsamples = 1\nvalue = 19.0"] ;
434 -> 435 ;
436 [label="NOX <= 0.792\nsquared_error = 0.403\nsamples = 4\nvalue = 14.65"] ;
434 -> 436 ;
437 [label="AGE <= 88.35\nsquared_error = 0.136\nsamples = 3\nvalue = 14.333"] ;
436 -> 437 ;
438 [label="LSTAT <= 16.365\nsquared_error = 0.04\nsamples = 2\nvalue = 14.1"] ;
437 -> 438 ;
439 [label="squared_error = 0.0\nsamples = 1\nvalue = 14.3"] ;
438 -> 439 ;
440 [label="squared_error = -0.0\nsamples = 1\nvalue = 13.9"] ;
438 -> 440 ;
441 [label="squared_error = -0.0\nsamples = 1\nvalue = 14.8"] ;
437 -> 441 ;
442 [label="squared_error = -0.0\nsamples = 1\nvalue = 15.6"] ;
436 -> 442 ;
443 [label="RAD <= 14.0\nsquared_error = 0.149\nsamples = 3\nvalue = 13.567"] ;
433 -> 443 ;
444 [label="squared_error = 0.0\nsamples = 1\nvalue = 13.2"] ;
443 -> 444 ;
445 [label="B <= 25.62\nsquared_error = 0.122\nsamples = 2\nvalue = 13.75"] ;
443 -> 445 ;
446 [label="squared_error = 0.0\nsamples = 1\nvalue = 13.4"] ;
445 -> 446 ;
447 [label="squared_error = 0.0\nsamples = 1\nvalue = 14.1"] ;
445 -> 447 ;
448 [label="DIS <= 1.717\nsquared_error = 0.42\nsamples = 4\nvalue = 16.8"] ;
432 -> 448 ;
449 [label="squared_error = 0.0\nsamples = 1\nvalue = 17.8"] ;
448 -> 449 ;
450 [label="NOX <= 0.495\nsquared_error = 0.116\nsamples = 3\nvalue = 16.467"] ;
448 -> 450 ;
451 [label="squared_error = 0.0\nsamples = 1\nvalue = 16.0"] ;
450 -> 451 ;
452 [label="DIS <= 3.293\nsquared_error = 0.01\nsamples = 2\nvalue = 16.7"] ;
450 -> 452 ;
453 [label="squared_error = 0.0\nsamples = 1\nvalue = 16.8"] ;
452 -> 453 ;
454 [label="squared_error = -0.0\nsamples = 1\nvalue = 16.6"] ;
452 -> 454 ;
455 [label="CRIM <= 5.082\nsquared_error = 3.807\nsamples = 12\nvalue = 18.842"] ;
431 -> 455 ;
456 [label="INDUS <= 6.555\nsquared_error = 2.398\nsamples = 9\nvalue = 18.2"] ;
455 -> 456 ;
457 [label="squared_error = 0.0\nsamples = 1\nvalue = 21.7"] ;
456 -> 457 ;
458 [label="RM <= 5.486\nsquared_error = 0.975\nsamples = 8\nvalue = 17.762"] ;
456 -> 458 ;
459 [label="squared_error = 0.0\nsamples = 1\nvalue = 19.3"] ;
458 -> 459 ;
460 [label="LSTAT <= 17.79\nsquared_error = 0.728\nsamples = 7\nvalue = 17.543"] ;
458 -> 460 ;
461 [label="NOX <= 0.529\nsquared_error = 0.572\nsamples = 5\nvalue = 17.9"] ;
460 -> 461 ;
462 [label="squared_error = 0.0\nsamples = 1\nvalue = 19.4"] ;
461 -> 462 ;
463 [label="RM <= 6.183\nsquared_error = 0.012\nsamples = 4\nvalue = 17.525"] ;
461 -> 463 ;
464 [label="LSTAT <= 16.0\nsquared_error = 0.002\nsamples = 3\nvalue = 17.467"] ;
463 -> 464 ;
465 [label="squared_error = 0.0\nsamples = 2\nvalue = 17.5"] ;
464 -> 465 ;
466 [label="squared_error = 0.0\nsamples = 1\nvalue = 17.4"] ;
464 -> 466 ;
467 [label="squared_error = -0.0\nsamples = 1\nvalue = 17.7"] ;
463 -> 467 ;
468 [label="TAX <= 449.5\nsquared_error = 0.002\nsamples = 2\nvalue = 16.65"] ;
460 -> 468 ;
469 [label="squared_error = 0.0\nsamples = 1\nvalue = 16.6"] ;
468 -> 469 ;
470 [label="squared_error = 0.0\nsamples = 1\nvalue = 16.7"] ;
468 -> 470 ;
471 [label="LSTAT <= 16.87\nsquared_error = 3.096\nsamples = 3\nvalue = 20.767"] ;
455 -> 471 ;
472 [label="B <= 394.79\nsquared_error = 0.203\nsamples = 2\nvalue = 19.55"] ;
471 -> 472 ;
473 [label="squared_error = 0.0\nsamples = 1\nvalue = 19.1"] ;
472 -> 473 ;
474 [label="squared_error = 0.0\nsamples = 1\nvalue = 20.0"] ;
472 -> 474 ;
475 [label="squared_error = 0.0\nsamples = 1\nvalue = 23.2"] ;
471 -> 475 ;
476 [label="LSTAT <= 18.915\nsquared_error = 4.564\nsamples = 33\nvalue = 15.009"] ;
430 -> 476 ;
477 [label="CRIM <= 0.654\nsquared_error = 2.601\nsamples = 15\nvalue = 16.393"] ;
476 -> 477 ;
478 [label="RM <= 5.757\nsquared_error = 0.639\nsamples = 6\nvalue = 17.867"] ;
477 -> 478 ;
479 [label="squared_error = 0.0\nsamples = 1\nvalue = 16.2"] ;
478 -> 479 ;
480 [label="AGE <= 96.65\nsquared_error = 0.1\nsamples = 5\nvalue = 18.2"] ;
478 -> 480 ;
481 [label="LSTAT <= 16.06\nsquared_error = 0.023\nsamples = 2\nvalue = 18.55"] ;
480 -> 481 ;
482 [label="squared_error = 0.0\nsamples = 1\nvalue = 18.4"] ;
481 -> 482 ;
483 [label="squared_error = 0.0\nsamples = 1\nvalue = 18.7"] ;
481 -> 483 ;
484 [label="DIS <= 1.741\nsquared_error = 0.016\nsamples = 3\nvalue = 17.967"] ;
480 -> 484 ;
485 [label="squared_error = 0.0\nsamples = 1\nvalue = 17.8"] ;
484 -> 485 ;
486 [label="RM <= 6.383\nsquared_error = 0.002\nsamples = 2\nvalue = 18.05"] ;
484 -> 486 ;
487 [label="squared_error = 0.0\nsamples = 1\nvalue = 18.1"] ;
486 -> 487 ;
488 [label="squared_error = 0.0\nsamples = 1\nvalue = 18.0"] ;
486 -> 488 ;
489 [label="LSTAT <= 15.63\nsquared_error = 1.497\nsamples = 9\nvalue = 15.411"] ;
477 -> 489 ;
490 [label="RM <= 6.002\nsquared_error = 0.04\nsamples = 2\nvalue = 17.2"] ;
489 -> 490 ;
491 [label="squared_error = 0.0\nsamples = 1\nvalue = 17.4"] ;
490 -> 491 ;
492 [label="squared_error = 0.0\nsamples = 1\nvalue = 17.0"] ;
490 -> 492 ;
493 [label="AGE <= 94.05\nsquared_error = 0.737\nsamples = 7\nvalue = 14.9"] ;
489 -> 493 ;
494 [label="squared_error = 0.0\nsamples = 1\nvalue = 13.1"] ;
493 -> 494 ;
495 [label="LSTAT <= 17.76\nsquared_error = 0.23\nsamples = 6\nvalue = 15.2"] ;
493 -> 495 ;
496 [label="RAD <= 14.5\nsquared_error = 0.03\nsamples = 4\nvalue = 15.5"] ;
495 -> 496 ;
497 [label="squared_error = 0.0\nsamples = 3\nvalue = 15.6"] ;
496 -> 497 ;
498 [label="squared_error = -0.0\nsamples = 1\nvalue = 15.2"] ;
496 -> 498 ;
499 [label="INDUS <= 19.995\nsquared_error = 0.09\nsamples = 2\nvalue = 14.6"] ;
495 -> 499 ;
500 [label="squared_error = 0.0\nsamples = 1\nvalue = 14.9"] ;
499 -> 500 ;
501 [label="squared_error = -0.0\nsamples = 1\nvalue = 14.3"] ;
499 -> 501 ;
502 [label="CRIM <= 0.209\nsquared_error = 3.272\nsamples = 18\nvalue = 13.856"] ;
476 -> 502 ;
503 [label="squared_error = 0.0\nsamples = 1\nvalue = 8.1"] ;
502 -> 503 ;
504 [label="RM <= 4.914\nsquared_error = 1.402\nsamples = 17\nvalue = 14.194"] ;
502 -> 504 ;
505 [label="squared_error = 0.0\nsamples = 1\nvalue = 11.8"] ;
504 -> 505 ;
506 [label="PTRATIO <= 19.65\nsquared_error = 1.109\nsamples = 16\nvalue = 14.344"] ;
504 -> 506 ;
507 [label="RM <= 5.435\nsquared_error = 0.86\nsamples = 9\nvalue = 14.933"] ;
506 -> 507 ;
508 [label="LSTAT <= 28.175\nsquared_error = 0.276\nsamples = 3\nvalue = 14.133"] ;
507 -> 508 ;
509 [label="squared_error = 0.0\nsamples = 1\nvalue = 13.4"] ;
508 -> 509 ;
510 [label="B <= 394.305\nsquared_error = 0.01\nsamples = 2\nvalue = 14.5"] ;
508 -> 510 ;
511 [label="squared_error = 0.0\nsamples = 1\nvalue = 14.6"] ;
510 -> 511 ;
512 [label="squared_error = -0.0\nsamples = 1\nvalue = 14.4"] ;
510 -> 512 ;
513 [label="B <= 262.38\nsquared_error = 0.672\nsamples = 6\nvalue = 15.333"] ;
507 -> 513 ;
514 [label="squared_error = 0.0\nsamples = 1\nvalue = 13.8"] ;
513 -> 514 ;
515 [label="LSTAT <= 28.595\nsquared_error = 0.242\nsamples = 5\nvalue = 15.64"] ;
513 -> 515 ;
516 [label="INDUS <= 13.725\nsquared_error = 0.072\nsamples = 4\nvalue = 15.425"] ;
515 -> 516 ;
517 [label="squared_error = 0.0\nsamples = 1\nvalue = 15.0"] ;
516 -> 517 ;
518 [label="AGE <= 95.25\nsquared_error = 0.016\nsamples = 3\nvalue = 15.567"] ;
516 -> 518 ;
519 [label="squared_error = 0.0\nsamples = 1\nvalue = 15.4"] ;
518 -> 519 ;
520 [label="B <= 378.095\nsquared_error = 0.002\nsamples = 2\nvalue = 15.65"] ;
518 -> 520 ;
521 [label="squared_error = 0.0\nsamples = 1\nvalue = 15.7"] ;
520 -> 521 ;
522 [label="squared_error = 0.0\nsamples = 1\nvalue = 15.6"] ;
520 -> 522 ;
523 [label="squared_error = 0.0\nsamples = 1\nvalue = 16.5"] ;
515 -> 523 ;
524 [label="AGE <= 99.1\nsquared_error = 0.407\nsamples = 7\nvalue = 13.586"] ;
506 -> 524 ;
525 [label="NOX <= 0.659\nsquared_error = 0.15\nsamples = 5\nvalue = 13.24"] ;
524 -> 525 ;
526 [label="TAX <= 372.0\nsquared_error = 0.017\nsamples = 4\nvalue = 13.425"] ;
525 -> 526 ;
527 [label="AGE <= 97.5\nsquared_error = 0.002\nsamples = 2\nvalue = 13.55"] ;
526 -> 527 ;
528 [label="squared_error = 0.0\nsamples = 1\nvalue = 13.5"] ;
527 -> 528 ;
529 [label="squared_error = -0.0\nsamples = 1\nvalue = 13.6"] ;
527 -> 529 ;
530 [label="squared_error = 0.0\nsamples = 2\nvalue = 13.3"] ;
526 -> 530 ;
531 [label="squared_error = 0.0\nsamples = 1\nvalue = 12.5"] ;
525 -> 531 ;
532 [label="INDUS <= 15.015\nsquared_error = 0.002\nsamples = 2\nvalue = 14.45"] ;
524 -> 532 ;
533 [label="squared_error = 0.0\nsamples = 1\nvalue = 14.5"] ;
532 -> 533 ;
534 [label="squared_error = 0.0\nsamples = 1\nvalue = 14.4"] ;
532 -> 534 ;
535 [label="LSTAT <= 19.85\nsquared_error = 15.188\nsamples = 58\nvalue = 11.903"] ;
393 -> 535 ;
536 [label="RM <= 6.843\nsquared_error = 16.179\nsamples = 21\nvalue = 14.771"] ;
535 -> 536 ;
537 [label="NOX <= 0.582\nsquared_error = 8.482\nsamples = 20\nvalue = 14.135"] ;
536 -> 537 ;
538 [label="AGE <= 63.85\nsquared_error = 0.25\nsamples = 2\nvalue = 19.6"] ;
537 -> 538 ;
539 [label="squared_error = 0.0\nsamples = 1\nvalue = 20.1"] ;
538 -> 539 ;
540 [label="squared_error = 0.0\nsamples = 1\nvalue = 19.1"] ;
538 -> 540 ;
541 [label="CRIM <= 11.667\nsquared_error = 5.71\nsamples = 18\nvalue = 13.528"] ;
537 -> 541 ;
542 [label="AGE <= 96.95\nsquared_error = 2.978\nsamples = 13\nvalue = 14.592"] ;
541 -> 542 ;
543 [label="AGE <= 75.45\nsquared_error = 1.039\nsamples = 8\nvalue = 13.712"] ;
542 -> 543 ;
544 [label="squared_error = 0.0\nsamples = 1\nvalue = 11.7"] ;
543 -> 544 ;
545 [label="NOX <= 0.727\nsquared_error = 0.526\nsamples = 7\nvalue = 14.0"] ;
543 -> 545 ;
546 [label="B <= 42.415\nsquared_error = 0.232\nsamples = 6\nvalue = 14.233"] ;
545 -> 546 ;
547 [label="squared_error = 0.0\nsamples = 1\nvalue = 13.5"] ;
546 -> 547 ;
548 [label="DIS <= 2.129\nsquared_error = 0.15\nsamples = 5\nvalue = 14.38"] ;
546 -> 548 ;
549 [label="CRIM <= 8.568\nsquared_error = 0.082\nsamples = 3\nvalue = 14.133"] ;
548 -> 549 ;
550 [label="squared_error = 0.0\nsamples = 1\nvalue = 14.5"] ;
549 -> 550 ;
551 [label="B <= 239.115\nsquared_error = 0.022\nsamples = 2\nvalue = 13.95"] ;
549 -> 551 ;
552 [label="squared_error = 0.0\nsamples = 1\nvalue = 14.1"] ;
551 -> 552 ;
553 [label="squared_error = 0.0\nsamples = 1\nvalue = 13.8"] ;
551 -> 553 ;
554 [label="DIS <= 2.477\nsquared_error = 0.023\nsamples = 2\nvalue = 14.75"] ;
548 -> 554 ;
555 [label="squared_error = 0.0\nsamples = 1\nvalue = 14.6"] ;
554 -> 555 ;
556 [label="squared_error = 0.0\nsamples = 1\nvalue = 14.9"] ;
554 -> 556 ;
557 [label="squared_error = 0.0\nsamples = 1\nvalue = 12.6"] ;
545 -> 557 ;
558 [label="DIS <= 2.154\nsquared_error = 2.86\nsamples = 5\nvalue = 16.0"] ;
542 -> 558 ;
559 [label="RM <= 6.448\nsquared_error = 0.763\nsamples = 4\nvalue = 16.75"] ;
558 -> 559 ;
560 [label="CHAS <= 0.5\nsquared_error = 0.207\nsamples = 3\nvalue = 17.2"] ;
559 -> 560 ;
561 [label="RM <= 6.408\nsquared_error = 0.04\nsamples = 2\nvalue = 16.9"] ;
560 -> 561 ;
562 [label="squared_error = 0.0\nsamples = 1\nvalue = 17.1"] ;
561 -> 562 ;
563 [label="squared_error = 0.0\nsamples = 1\nvalue = 16.7"] ;
561 -> 563 ;
564 [label="squared_error = 0.0\nsamples = 1\nvalue = 17.8"] ;
560 -> 564 ;
565 [label="squared_error = 0.0\nsamples = 1\nvalue = 15.4"] ;
559 -> 565 ;
566 [label="squared_error = 0.0\nsamples = 1\nvalue = 13.0"] ;
558 -> 566 ;
567 [label="RM <= 5.862\nsquared_error = 2.206\nsamples = 5\nvalue = 10.76"] ;
541 -> 567 ;
568 [label="NOX <= 0.639\nsquared_error = 0.903\nsamples = 2\nvalue = 9.25"] ;
567 -> 568 ;
569 [label="squared_error = 0.0\nsamples = 1\nvalue = 10.2"] ;
568 -> 569 ;
570 [label="squared_error = 0.0\nsamples = 1\nvalue = 8.3"] ;
568 -> 570 ;
571 [label="RM <= 6.045\nsquared_error = 0.542\nsamples = 3\nvalue = 11.767"] ;
567 -> 571 ;
572 [label="squared_error = 0.0\nsamples = 1\nvalue = 12.7"] ;
571 -> 572 ;
573 [label="CRIM <= 25.788\nsquared_error = 0.16\nsamples = 2\nvalue = 11.3"] ;
571 -> 573 ;
574 [label="squared_error = 0.0\nsamples = 1\nvalue = 11.7"] ;
573 -> 574 ;
575 [label="squared_error = -0.0\nsamples = 1\nvalue = 10.9"] ;
573 -> 575 ;
576 [label="squared_error = -0.0\nsamples = 1\nvalue = 27.5"] ;
536 -> 576 ;
577 [label="NOX <= 0.675\nsquared_error = 7.307\nsamples = 37\nvalue = 10.276"] ;
535 -> 577 ;
578 [label="LSTAT <= 20.66\nsquared_error = 2.3\nsamples = 10\nvalue = 13.17"] ;
577 -> 578 ;
579 [label="squared_error = 0.0\nsamples = 1\nvalue = 16.3"] ;
578 -> 579 ;
580 [label="B <= 395.32\nsquared_error = 1.346\nsamples = 9\nvalue = 12.822"] ;
578 -> 580 ;
581 [label="AGE <= 95.3\nsquared_error = 1.686\nsamples = 5\nvalue = 12.28"] ;
580 -> 581 ;
582 [label="NOX <= 0.643\nsquared_error = 0.062\nsamples = 2\nvalue = 13.65"] ;
581 -> 582 ;
583 [label="squared_error = 0.0\nsamples = 1\nvalue = 13.4"] ;
582 -> 583 ;
584 [label="squared_error = -0.0\nsamples = 1\nvalue = 13.9"] ;
582 -> 584 ;
585 [label="LSTAT <= 22.56\nsquared_error = 0.682\nsamples = 3\nvalue = 11.367"] ;
581 -> 585 ;
586 [label="squared_error = 0.0\nsamples = 1\nvalue = 10.2"] ;
585 -> 586 ;
587 [label="LSTAT <= 24.125\nsquared_error = 0.002\nsamples = 2\nvalue = 11.95"] ;
585 -> 587 ;
588 [label="squared_error = 0.0\nsamples = 1\nvalue = 11.9"] ;
587 -> 588 ;
589 [label="squared_error = 0.0\nsamples = 1\nvalue = 12.0"] ;
587 -> 589 ;
590 [label="LSTAT <= 29.23\nsquared_error = 0.095\nsamples = 4\nvalue = 13.5"] ;
580 -> 590 ;
591 [label="CRIM <= 16.736\nsquared_error = 0.01\nsamples = 2\nvalue = 13.2"] ;
590 -> 591 ;
592 [label="squared_error = 0.0\nsamples = 1\nvalue = 13.3"] ;
591 -> 592 ;
593 [label="squared_error = 0.0\nsamples = 1\nvalue = 13.1"] ;
591 -> 593 ;
594 [label="squared_error = -0.0\nsamples = 2\nvalue = 13.8"] ;
590 -> 594 ;
595 [label="CRIM <= 11.486\nsquared_error = 4.91\nsamples = 27\nvalue = 9.204"] ;
577 -> 595 ;
596 [label="LSTAT <= 25.175\nsquared_error = 4.532\nsamples = 12\nvalue = 10.667"] ;
595 -> 596 ;
597 [label="LSTAT <= 20.115\nsquared_error = 1.962\nsamples = 10\nvalue = 11.42"] ;
596 -> 597 ;
598 [label="squared_error = 0.0\nsamples = 1\nvalue = 8.5"] ;
597 -> 598 ;
599 [label="NOX <= 0.686\nsquared_error = 1.127\nsamples = 9\nvalue = 11.744"] ;
597 -> 599 ;
600 [label="B <= 78.725\nsquared_error = 0.562\nsamples = 2\nvalue = 10.25"] ;
599 -> 600 ;
601 [label="squared_error = 0.0\nsamples = 1\nvalue = 9.5"] ;
600 -> 601 ;
602 [label="squared_error = 0.0\nsamples = 1\nvalue = 11.0"] ;
600 -> 602 ;
603 [label="AGE <= 94.7\nsquared_error = 0.468\nsamples = 7\nvalue = 12.171"] ;
599 -> 603 ;
604 [label="CRIM <= 10.276\nsquared_error = 0.09\nsamples = 2\nvalue = 13.1"] ;
603 -> 604 ;
605 [label="squared_error = 0.0\nsamples = 1\nvalue = 12.8"] ;
604 -> 605 ;
606 [label="squared_error = -0.0\nsamples = 1\nvalue = 13.4"] ;
604 -> 606 ;
607 [label="DIS <= 1.557\nsquared_error = 0.136\nsamples = 5\nvalue = 11.8"] ;
603 -> 607 ;
608 [label="squared_error = 0.0\nsamples = 1\nvalue = 12.3"] ;
607 -> 608 ;
609 [label="CRIM <= 9.391\nsquared_error = 0.092\nsamples = 4\nvalue = 11.675"] ;
607 -> 609 ;
610 [label="DIS <= 1.654\nsquared_error = 0.01\nsamples = 2\nvalue = 11.4"] ;
609 -> 610 ;
611 [label="squared_error = 0.0\nsamples = 1\nvalue = 11.3"] ;
610 -> 611 ;
612 [label="squared_error = 0.0\nsamples = 1\nvalue = 11.5"] ;
610 -> 612 ;
613 [label="LSTAT <= 22.145\nsquared_error = 0.022\nsamples = 2\nvalue = 11.95"] ;
609 -> 613 ;
614 [label="squared_error = 0.0\nsamples = 1\nvalue = 12.1"] ;
613 -> 614 ;
615 [label="squared_error = 0.0\nsamples = 1\nvalue = 11.8"] ;
613 -> 615 ;
616 [label="CRIM <= 10.375\nsquared_error = 0.36\nsamples = 2\nvalue = 6.9"] ;
596 -> 616 ;
617 [label="squared_error = 0.0\nsamples = 1\nvalue = 6.3"] ;
616 -> 617 ;
618 [label="squared_error = -0.0\nsamples = 1\nvalue = 7.5"] ;
616 -> 618 ;
619 [label="DIS <= 1.426\nsquared_error = 2.13\nsamples = 15\nvalue = 8.033"] ;
595 -> 619 ;
620 [label="squared_error = 0.0\nsamples = 1\nvalue = 5.0"] ;
619 -> 620 ;
621 [label="RM <= 5.972\nsquared_error = 1.578\nsamples = 14\nvalue = 8.25"] ;
619 -> 621 ;
622 [label="LSTAT <= 30.72\nsquared_error = 1.192\nsamples = 9\nvalue = 8.711"] ;
621 -> 622 ;
623 [label="B <= 360.455\nsquared_error = 0.832\nsamples = 6\nvalue = 9.233"] ;
622 -> 623 ;
624 [label="CRIM <= 17.973\nsquared_error = 0.045\nsamples = 4\nvalue = 8.6"] ;
623 -> 624 ;
625 [label="squared_error = 0.0\nsamples = 1\nvalue = 8.3"] ;
624 -> 625 ;
626 [label="AGE <= 88.3\nsquared_error = 0.02\nsamples = 3\nvalue = 8.7"] ;
624 -> 626 ;
627 [label="squared_error = 0.0\nsamples = 1\nvalue = 8.5"] ;
626 -> 627 ;
628 [label="squared_error = -0.0\nsamples = 2\nvalue = 8.8"] ;
626 -> 628 ;
629 [label="squared_error = -0.0\nsamples = 2\nvalue = 10.5"] ;
623 -> 629 ;
630 [label="AGE <= 88.7\nsquared_error = 0.276\nsamples = 3\nvalue = 7.667"] ;
622 -> 630 ;
631 [label="squared_error = 0.0\nsamples = 1\nvalue = 8.4"] ;
630 -> 631 ;
632 [label="DIS <= 1.472\nsquared_error = 0.01\nsamples = 2\nvalue = 7.3"] ;
630 -> 632 ;
633 [label="squared_error = 0.0\nsamples = 1\nvalue = 7.2"] ;
632 -> 633 ;
634 [label="squared_error = -0.0\nsamples = 1\nvalue = 7.4"] ;
632 -> 634 ;
635 [label="NOX <= 0.706\nsquared_error = 1.202\nsamples = 5\nvalue = 7.42"] ;
621 -> 635 ;
636 [label="RM <= 6.165\nsquared_error = 0.569\nsamples = 3\nvalue = 6.667"] ;
635 -> 636 ;
637 [label="squared_error = 0.0\nsamples = 1\nvalue = 5.6"] ;
636 -> 637 ;
638 [label="RM <= 6.388\nsquared_error = 0.0\nsamples = 2\nvalue = 7.2"] ;
636 -> 638 ;
639 [label="squared_error = 0.0\nsamples = 1\nvalue = 7.2"] ;
638 -> 639 ;
640 [label="squared_error = 0.0\nsamples = 1\nvalue = 7.2"] ;
638 -> 640 ;
641 [label="LSTAT <= 24.595\nsquared_error = 0.022\nsamples = 2\nvalue = 8.55"] ;
635 -> 641 ;
642 [label="squared_error = 0.0\nsamples = 1\nvalue = 8.4"] ;
641 -> 642 ;
643 [label="squared_error = -0.0\nsamples = 1\nvalue = 8.7"] ;
641 -> 643 ;
644 [label="RM <= 7.437\nsquared_error = 74.684\nsamples = 67\nvalue = 37.131"] ;
0 -> 644 [labeldistance=2.5, labelangle=-45, headlabel="False"] ;
645 [label="NOX <= 0.659\nsquared_error = 38.306\nsamples = 41\nvalue = 32.363"] ;
644 -> 645 ;
646 [label="DIS <= 1.886\nsquared_error = 21.586\nsamples = 39\nvalue = 33.3"] ;
645 -> 646 ;
647 [label="NOX <= 0.618\nsquared_error = 18.923\nsamples = 2\nvalue = 45.65"] ;
646 -> 647 ;
648 [label="squared_error = 0.0\nsamples = 1\nvalue = 41.3"] ;
647 -> 648 ;
649 [label="squared_error = 0.0\nsamples = 1\nvalue = 50.0"] ;
647 -> 649 ;
650 [label="INDUS <= 9.17\nsquared_error = 13.039\nsamples = 37\nvalue = 32.632"] ;
646 -> 650 ;
651 [label="TAX <= 253.0\nsquared_error = 9.723\nsamples = 35\nvalue = 33.1"] ;
650 -> 651 ;
652 [label="CRIM <= 0.033\nsquared_error = 3.13\nsamples = 9\nvalue = 35.489"] ;
651 -> 652 ;
653 [label="PTRATIO <= 18.65\nsquared_error = 0.04\nsamples = 2\nvalue = 33.2"] ;
652 -> 653 ;
654 [label="squared_error = 0.0\nsamples = 1\nvalue = 33.0"] ;
653 -> 654 ;
655 [label="squared_error = -0.0\nsamples = 1\nvalue = 33.4"] ;
653 -> 655 ;
656 [label="RM <= 7.328\nsquared_error = 2.088\nsamples = 7\nvalue = 36.143"] ;
652 -> 656 ;
657 [label="CRIM <= 0.056\nsquared_error = 0.973\nsamples = 6\nvalue = 36.6"] ;
656 -> 657 ;
658 [label="CRIM <= 0.044\nsquared_error = 0.36\nsamples = 2\nvalue = 35.5"] ;
657 -> 658 ;
659 [label="squared_error = 0.0\nsamples = 1\nvalue = 34.9"] ;
658 -> 659 ;
660 [label="squared_error = 0.0\nsamples = 1\nvalue = 36.1"] ;
658 -> 660 ;
661 [label="INDUS <= 2.32\nsquared_error = 0.372\nsamples = 4\nvalue = 37.15"] ;
657 -> 661 ;
662 [label="squared_error = 0.0\nsamples = 1\nvalue = 36.2"] ;
661 -> 662 ;
663 [label="CRIM <= 0.085\nsquared_error = 0.096\nsamples = 3\nvalue = 37.467"] ;
661 -> 663 ;
664 [label="ZN <= 40.0\nsquared_error = 0.003\nsamples = 2\nvalue = 37.25"] ;
663 -> 664 ;
665 [label="squared_error = 0.0\nsamples = 1\nvalue = 37.2"] ;
664 -> 665 ;
666 [label="squared_error = 0.0\nsamples = 1\nvalue = 37.3"] ;
664 -> 666 ;
667 [label="squared_error = -0.0\nsamples = 1\nvalue = 37.9"] ;
663 -> 667 ;
668 [label="squared_error = -0.0\nsamples = 1\nvalue = 33.4"] ;
656 -> 668 ;
669 [label="PTRATIO <= 17.2\nsquared_error = 9.346\nsamples = 26\nvalue = 32.273"] ;
651 -> 669 ;
670 [label="B <= 374.63\nsquared_error = 5.212\nsamples = 17\nvalue = 33.488"] ;
669 -> 670 ;
671 [label="TAX <= 343.5\nsquared_error = 0.423\nsamples = 2\nvalue = 29.65"] ;
670 -> 671 ;
672 [label="squared_error = 0.0\nsamples = 1\nvalue = 30.3"] ;
671 -> 672 ;
673 [label="squared_error = 0.0\nsamples = 1\nvalue = 29.0"] ;
671 -> 673 ;
674 [label="CRIM <= 0.725\nsquared_error = 3.624\nsamples = 15\nvalue = 34.0"] ;
670 -> 674 ;
675 [label="PTRATIO <= 15.25\nsquared_error = 2.417\nsamples = 13\nvalue = 34.485"] ;
674 -> 675 ;
676 [label="B <= 391.345\nsquared_error = 1.616\nsamples = 8\nvalue = 35.312"] ;
675 -> 676 ;
677 [label="B <= 380.485\nsquared_error = 0.127\nsamples = 4\nvalue = 36.475"] ;
676 -> 677 ;
678 [label="squared_error = 0.0\nsamples = 1\nvalue = 37.0"] ;
677 -> 678 ;
679 [label="CRIM <= 0.607\nsquared_error = 0.047\nsamples = 3\nvalue = 36.3"] ;
677 -> 679 ;
680 [label="B <= 389.19\nsquared_error = 0.002\nsamples = 2\nvalue = 36.45"] ;
679 -> 680 ;
681 [label="squared_error = 0.0\nsamples = 1\nvalue = 36.5"] ;
680 -> 681 ;
682 [label="squared_error = -0.0\nsamples = 1\nvalue = 36.4"] ;
680 -> 682 ;
683 [label="squared_error = 0.0\nsamples = 1\nvalue = 36.0"] ;
679 -> 683 ;
684 [label="RM <= 7.281\nsquared_error = 0.402\nsamples = 4\nvalue = 34.15"] ;
676 -> 684 ;
685 [label="DIS <= 3.339\nsquared_error = 0.216\nsamples = 3\nvalue = 34.433"] ;
684 -> 685 ;
686 [label="squared_error = 0.0\nsamples = 1\nvalue = 33.8"] ;
685 -> 686 ;
687 [label="AGE <= 38.6\nsquared_error = 0.023\nsamples = 2\nvalue = 34.75"] ;
685 -> 687 ;
688 [label="squared_error = 0.0\nsamples = 1\nvalue = 34.6"] ;
687 -> 688 ;
689 [label="squared_error = 0.0\nsamples = 1\nvalue = 34.9"] ;
687 -> 689 ;
690 [label="squared_error = 0.0\nsamples = 1\nvalue = 33.3"] ;
684 -> 690 ;
691 [label="RM <= 6.978\nsquared_error = 0.846\nsamples = 5\nvalue = 33.16"] ;
675 -> 691 ;
692 [label="squared_error = 0.0\nsamples = 1\nvalue = 34.9"] ;
691 -> 692 ;
693 [label="CRIM <= 0.011\nsquared_error = 0.112\nsamples = 4\nvalue = 32.725"] ;
691 -> 693 ;
694 [label="squared_error = 0.0\nsamples = 1\nvalue = 32.2"] ;
693 -> 694 ;
695 [label="INDUS <= 3.805\nsquared_error = 0.027\nsamples = 3\nvalue = 32.9"] ;
693 -> 695 ;
696 [label="B <= 389.52\nsquared_error = 0.01\nsamples = 2\nvalue = 32.8"] ;
695 -> 696 ;
697 [label="squared_error = 0.0\nsamples = 1\nvalue = 32.9"] ;
696 -> 697 ;
698 [label="squared_error = 0.0\nsamples = 1\nvalue = 32.7"] ;
696 -> 698 ;
699 [label="squared_error = 0.0\nsamples = 1\nvalue = 33.1"] ;
695 -> 699 ;
700 [label="AGE <= 89.55\nsquared_error = 0.023\nsamples = 2\nvalue = 30.85"] ;
674 -> 700 ;
701 [label="squared_error = 0.0\nsamples = 1\nvalue = 30.7"] ;
700 -> 701 ;
702 [label="squared_error = -0.0\nsamples = 1\nvalue = 31.0"] ;
700 -> 702 ;
703 [label="AGE <= 83.1\nsquared_error = 9.097\nsamples = 9\nvalue = 29.978"] ;
669 -> 703 ;
704 [label="RM <= 7.121\nsquared_error = 2.448\nsamples = 7\nvalue = 31.357"] ;
703 -> 704 ;
705 [label="AGE <= 34.95\nsquared_error = 0.202\nsamples = 2\nvalue = 29.15"] ;
704 -> 705 ;
706 [label="squared_error = 0.0\nsamples = 1\nvalue = 29.6"] ;
705 -> 706 ;
707 [label="squared_error = 0.0\nsamples = 1\nvalue = 28.7"] ;
705 -> 707 ;
708 [label="AGE <= 67.05\nsquared_error = 0.618\nsamples = 5\nvalue = 32.24"] ;
704 -> 708 ;
709 [label="squared_error = 0.0\nsamples = 2\nvalue = 33.2"] ;
708 -> 709 ;
710 [label="CRIM <= 0.487\nsquared_error = 0.007\nsamples = 3\nvalue = 31.6"] ;
708 -> 710 ;
711 [label="DIS <= 3.444\nsquared_error = 0.003\nsamples = 2\nvalue = 31.65"] ;
710 -> 711 ;
712 [label="squared_error = 0.0\nsamples = 1\nvalue = 31.6"] ;
711 -> 712 ;
713 [label="squared_error = 0.0\nsamples = 1\nvalue = 31.7"] ;
711 -> 713 ;
714 [label="squared_error = -0.0\nsamples = 1\nvalue = 31.5"] ;
710 -> 714 ;
715 [label="INDUS <= 4.805\nsquared_error = 2.402\nsamples = 2\nvalue = 25.15"] ;
703 -> 715 ;
716 [label="squared_error = 0.0\nsamples = 1\nvalue = 23.6"] ;
715 -> 716 ;
717 [label="squared_error = 0.0\nsamples = 1\nvalue = 26.7"] ;
715 -> 717 ;
718 [label="INDUS <= 15.015\nsquared_error = 0.302\nsamples = 2\nvalue = 24.45"] ;
650 -> 718 ;
719 [label="squared_error = 0.0\nsamples = 1\nvalue = 23.9"] ;
718 -> 719 ;
720 [label="squared_error = 0.0\nsamples = 1\nvalue = 25.0"] ;
718 -> 720 ;
721 [label="DIS <= 1.935\nsquared_error = 13.69\nsamples = 2\nvalue = 14.1"] ;
645 -> 721 ;
722 [label="squared_error = 0.0\nsamples = 1\nvalue = 10.4"] ;
721 -> 722 ;
723 [label="squared_error = -0.0\nsamples = 1\nvalue = 17.8"] ;
721 -> 723 ;
724 [label="RM <= 8.753\nsquared_error = 39.671\nsamples = 26\nvalue = 44.65"] ;
644 -> 724 ;
725 [label="CRIM <= 0.577\nsquared_error = 19.727\nsamples = 25\nvalue = 45.56"] ;
724 -> 725 ;
726 [label="INDUS <= 6.58\nsquared_error = 17.766\nsamples = 19\nvalue = 44.158"] ;
725 -> 726 ;
727 [label="B <= 395.54\nsquared_error = 14.047\nsamples = 18\nvalue = 44.656"] ;
726 -> 727 ;
728 [label="LSTAT <= 3.145\nsquared_error = 11.977\nsamples = 15\nvalue = 45.5"] ;
727 -> 728 ;
729 [label="LSTAT <= 3.12\nsquared_error = 7.806\nsamples = 5\nvalue = 42.32"] ;
728 -> 729 ;
730 [label="TAX <= 275.5\nsquared_error = 2.795\nsamples = 4\nvalue = 43.5"] ;
729 -> 730 ;
731 [label="LSTAT <= 3.06\nsquared_error = 1.0\nsamples = 2\nvalue = 45.0"] ;
730 -> 731 ;
732 [label="squared_error = 0.0\nsamples = 1\nvalue = 46.0"] ;
731 -> 732 ;
733 [label="squared_error = 0.0\nsamples = 1\nvalue = 44.0"] ;
731 -> 733 ;
734 [label="RM <= 7.974\nsquared_error = 0.09\nsamples = 2\nvalue = 42.0"] ;
730 -> 734 ;
735 [label="squared_error = 0.0\nsamples = 1\nvalue = 42.3"] ;
734 -> 735 ;
736 [label="squared_error = 0.0\nsamples = 1\nvalue = 41.7"] ;
734 -> 736 ;
737 [label="squared_error = 0.0\nsamples = 1\nvalue = 37.6"] ;
729 -> 737 ;
738 [label="RM <= 7.826\nsquared_error = 6.479\nsamples = 10\nvalue = 47.09"] ;
728 -> 738 ;
739 [label="B <= 387.84\nsquared_error = 1.963\nsamples = 4\nvalue = 44.75"] ;
738 -> 739 ;
740 [label="AGE <= 40.75\nsquared_error = 0.423\nsamples = 2\nvalue = 46.05"] ;
739 -> 740 ;
741 [label="squared_error = 0.0\nsamples = 1\nvalue = 46.7"] ;
740 -> 741 ;
742 [label="squared_error = 0.0\nsamples = 1\nvalue = 45.4"] ;
740 -> 742 ;
743 [label="RAD <= 3.5\nsquared_error = 0.122\nsamples = 2\nvalue = 43.45"] ;
739 -> 743 ;
744 [label="squared_error = 0.0\nsamples = 1\nvalue = 43.8"] ;
743 -> 744 ;
745 [label="squared_error = -0.0\nsamples = 1\nvalue = 43.1"] ;
743 -> 745 ;
746 [label="NOX <= 0.496\nsquared_error = 3.406\nsamples = 6\nvalue = 48.65"] ;
738 -> 746 ;
747 [label="squared_error = 0.0\nsamples = 2\nvalue = 50.0"] ;
746 -> 747 ;
748 [label="CRIM <= 0.323\nsquared_error = 3.742\nsamples = 4\nvalue = 47.975"] ;
746 -> 748 ;
749 [label="squared_error = 0.0\nsamples = 1\nvalue = 44.8"] ;
748 -> 749 ;
750 [label="NOX <= 0.506\nsquared_error = 0.509\nsamples = 3\nvalue = 49.033"] ;
748 -> 750 ;
751 [label="squared_error = 0.0\nsamples = 1\nvalue = 50.0"] ;
750 -> 751 ;
752 [label="RM <= 8.322\nsquared_error = 0.063\nsamples = 2\nvalue = 48.55"] ;
750 -> 752 ;
753 [label="squared_error = 0.0\nsamples = 1\nvalue = 48.3"] ;
752 -> 753 ;
754 [label="squared_error = 0.0\nsamples = 1\nvalue = 48.8"] ;
752 -> 754 ;
755 [label="PTRATIO <= 18.55\nsquared_error = 3.002\nsamples = 3\nvalue = 40.433"] ;
727 -> 755 ;
756 [label="RM <= 7.917\nsquared_error = 0.303\nsamples = 2\nvalue = 39.25"] ;
755 -> 756 ;
757 [label="squared_error = 0.0\nsamples = 1\nvalue = 39.8"] ;
756 -> 757 ;
758 [label="squared_error = 0.0\nsamples = 1\nvalue = 38.7"] ;
756 -> 758 ;
759 [label="squared_error = 0.0\nsamples = 1\nvalue = 42.8"] ;
755 -> 759 ;
760 [label="squared_error = -0.0\nsamples = 1\nvalue = 35.2"] ;
726 -> 760 ;
761 [label="squared_error = 0.0\nsamples = 6\nvalue = 50.0"] ;
725 -> 761 ;
762 [label="squared_error = -0.0\nsamples = 1\nvalue = 21.9"] ;
724 -> 762 ;
}